<?xml version="1.0"?>
<opencv_storage>
<cascade>
  <stageType>BOOST</stageType>
  <featureType>HAAR</featureType>
  <height>64</height>
  <width>64</width>
  <stageParams>
    <boostType>GAB</boostType>
    <minHitRate>9.9500000476837158e-01</minHitRate>
    <maxFalseAlarm>5.0000000000000000e-01</maxFalseAlarm>
    <weightTrimRate>9.4999999999999996e-01</weightTrimRate>
    <maxDepth>1</maxDepth>
    <maxWeakCount>100</maxWeakCount></stageParams>
  <featureParams>
    <maxCatCount>0</maxCatCount>
    <featSize>1</featSize>
    <mode>BASIC</mode></featureParams>
  <stageNum>3</stageNum>
  <stages>
    <!-- stage 0 -->
    <_>
      <maxWeakCount>4</maxWeakCount>
      <stageThreshold>-1.3783457279205322e+00</stageThreshold>
      <weakClassifiers>
        <_>
          <internalNodes>
            0 -1 3 1.0792028158903122e-02</internalNodes>
          <leafValues>
            -8.0254155397415161e-01 7.2277230024337769e-01</leafValues></_>
        <_>
          <internalNodes>
            0 -1 16 8.6085137445479631e-04</internalNodes>
          <leafValues>
            -6.1949300765991211e-01 5.3718030452728271e-01</leafValues></_>
        <_>
          <internalNodes>
            0 -1 1 -1.0044882073998451e-02</internalNodes>
          <leafValues>
            7.4500054121017456e-01 -4.3918788433074951e-01</leafValues></_>
        <_>
          <internalNodes>
            0 -1 4 -2.3744050413370132e-03</internalNodes>
          <leafValues>
            4.8287677764892578e-01 -5.8836549520492554e-01</leafValues></_></weakClassifiers></_>
    <!-- stage 1 -->
    <_>
      <maxWeakCount>6</maxWeakCount>
      <stageThreshold>-1.7444230318069458e+00</stageThreshold>
      <weakClassifiers>
        <_>
          <internalNodes>
            0 -1 8 1.6618061810731888e-02</internalNodes>
          <leafValues>
            -7.7065110206604004e-01 6.0204082727432251e-01</leafValues></_>
        <_>
          <internalNodes>
            0 -1 2 -1.9318681210279465e-02</internalNodes>
          <leafValues>
            6.7844027280807495e-01 -4.4589564204216003e-01</leafValues></_>
        <_>
          <internalNodes>
            0 -1 9 -1.2593881692737341e-03</internalNodes>
          <leafValues>
            6.3125377893447876e-01 -4.4988265633583069e-01</leafValues></_>
        <_>
          <internalNodes>
            0 -1 13 -2.8016909956932068e-02</internalNodes>
          <leafValues>
            5.5212998390197754e-01 -4.4746363162994385e-01</leafValues></_>
        <_>
          <internalNodes>
            0 -1 5 -2.4304667487740517e-02</internalNodes>
          <leafValues>
            7.1828043460845947e-01 -3.6654239892959595e-01</leafValues></_>
        <_>
          <internalNodes>
            0 -1 10 -7.4628135189414024e-03</internalNodes>
          <leafValues>
            6.8707036972045898e-01 -3.4512409567832947e-01</leafValues></_></weakClassifiers></_>
    <!-- stage 2 -->
    <_>
      <maxWeakCount>7</maxWeakCount>
      <stageThreshold>-1.4306178092956543e+00</stageThreshold>
      <weakClassifiers>
        <_>
          <internalNodes>
            0 -1 11 1.5139225870370865e-03</internalNodes>
          <leafValues>
            -7.8902953863143921e-01 2.6353791356086731e-01</leafValues></_>
        <_>
          <internalNodes>
            0 -1 14 -1.8640631809830666e-02</internalNodes>
          <leafValues>
            7.7458184957504272e-01 -4.4679164886474609e-01</leafValues></_>
        <_>
          <internalNodes>
            0 -1 12 3.0159684683894739e-05</internalNodes>
          <leafValues>
            3.1775334477424622e-01 -8.3947783708572388e-01</leafValues></_>
        <_>
          <internalNodes>
            0 -1 6 -1.2554630637168884e-02</internalNodes>
          <leafValues>
            6.8127357959747314e-01 -4.2370370030403137e-01</leafValues></_>
        <_>
          <internalNodes>
            0 -1 0 -5.3736949339509010e-03</internalNodes>
          <leafValues>
            9.1255038976669312e-01 -2.6009023189544678e-01</leafValues></_>
        <_>
          <internalNodes>
            0 -1 15 -1.1236270889639854e-02</internalNodes>
          <leafValues>
            5.4231458902359009e-01 -5.2422928810119629e-01</leafValues></_>
        <_>
          <internalNodes>
            0 -1 7 -2.5926670059561729e-03</internalNodes>
          <leafValues>
            7.3418360948562622e-01 -3.5709419846534729e-01</leafValues></_></weakClassifiers></_></stages>
  <features>
    <_>
      <rects>
        <_>
          0 35 12 29 -1.</_>
        <_>
          4 35 4 29 3.</_></rects>
      <tilted>0</tilted></_>
    <_>
      <rects>
        <_>
          0 47 54 12 -1.</_>
        <_>
          0 51 54 4 3.</_></rects>
      <tilted>0</tilted></_>
    <_>
      <rects>
        <_>
          1 9 21 46 -1.</_>
        <_>
          8 9 7 46 3.</_></rects>
      <tilted>0</tilted></_>
    <_>
      <rects>
        <_>
          1 56 63 8 -1.</_>
        <_>
          1 60 63 4 2.</_></rects>
      <tilted>0</tilted></_>
    <_>
      <rects>
        <_>
          1 60 63 4 -1.</_>
        <_>
          22 60 21 4 3.</_></rects>
      <tilted>0</tilted></_>
    <_>
      <rects>
        <_>
          5 8 43 18 -1.</_>
        <_>
          5 14 43 6 3.</_></rects>
      <tilted>0</tilted></_>
    <_>
      <rects>
        <_>
          6 1 40 15 -1.</_>
        <_>
          6 6 40 5 3.</_></rects>
      <tilted>0</tilted></_>
    <_>
      <rects>
        <_>
          6 7 6 28 -1.</_>
        <_>
          9 7 3 28 2.</_></rects>
      <tilted>0</tilted></_>
    <_>
      <rects>
        <_>
          6 56 57 8 -1.</_>
        <_>
          6 60 57 4 2.</_></rects>
      <tilted>0</tilted></_>
    <_>
      <rects>
        <_>
          8 37 21 4 -1.</_>
        <_>
          8 39 21 2 2.</_></rects>
      <tilted>0</tilted></_>
    <_>
      <rects>
        <_>
          15 1 7 21 -1.</_>
        <_>
          15 8 7 7 3.</_></rects>
      <tilted>0</tilted></_>
    <_>
      <rects>
        <_>
          20 56 10 8 -1.</_>
        <_>
          20 60 10 4 2.</_></rects>
      <tilted>0</tilted></_>
    <_>
      <rects>
        <_>
          24 60 3 2 -1.</_>
        <_>
          25 60 1 2 3.</_></rects>
      <tilted>0</tilted></_>
    <_>
      <rects>
        <_>
          25 31 36 33 -1.</_>
        <_>
          25 42 36 11 3.</_></rects>
      <tilted>0</tilted></_>
    <_>
      <rects>
        <_>
          43 27 21 37 -1.</_>
        <_>
          50 27 7 37 3.</_></rects>
      <tilted>0</tilted></_>
    <_>
      <rects>
        <_>
          46 27 8 28 -1.</_>
        <_>
          46 41 8 14 2.</_></rects>
      <tilted>0</tilted></_>
    <_>
      <rects>
        <_>
          52 48 12 4 -1.</_>
        <_>
          58 48 6 4 2.</_></rects>
      <tilted>0</tilted></_></features></cascade>
</opencv_storage>
