<?xml version="1.0"?>
<opencv_storage>
<cascade>
  <stageType>BOOST</stageType>
  <featureType>HAAR</featureType>
  <height>64</height>
  <width>64</width>
  <stageParams>
    <boostType>GAB</boostType>
    <minHitRate>9.9500000476837158e-01</minHitRate>
    <maxFalseAlarm>5.0000000000000000e-01</maxFalseAlarm>
    <weightTrimRate>9.4999999999999996e-01</weightTrimRate>
    <maxDepth>1</maxDepth>
    <maxWeakCount>100</maxWeakCount></stageParams>
  <featureParams>
    <maxCatCount>0</maxCatCount>
    <featSize>1</featSize>
    <mode>BASIC</mode></featureParams>
  <stageNum>2</stageNum>
  <stages>
    <!-- stage 0 -->
    <_>
      <maxWeakCount>4</maxWeakCount>
      <stageThreshold>-8.5954999923706055e-01</stageThreshold>
      <weakClassifiers>
        <_>
          <internalNodes>
            0 -1 4 2.3790306877344847e-03</internalNodes>
          <leafValues>
            -6.5340906381607056e-01 8.7837839126586914e-01</leafValues></_>
        <_>
          <internalNodes>
            0 -1 8 1.0873817373067141e-03</internalNodes>
          <leafValues>
            -5.4938405752182007e-01 7.0720177888870239e-01</leafValues></_>
        <_>
          <internalNodes>
            0 -1 5 -1.0450093448162079e-01</internalNodes>
          <leafValues>
            7.5467526912689209e-01 -5.2509021759033203e-01</leafValues></_>
        <_>
          <internalNodes>
            0 -1 6 -8.4520392119884491e-03</internalNodes>
          <leafValues>
            8.6833333969116211e-01 -3.4011492133140564e-01</leafValues></_></weakClassifiers></_>
    <!-- stage 1 -->
    <_>
      <maxWeakCount>5</maxWeakCount>
      <stageThreshold>-7.7268463373184204e-01</stageThreshold>
      <weakClassifiers>
        <_>
          <internalNodes>
            0 -1 1 6.8584000691771507e-03</internalNodes>
          <leafValues>
            -6.8862277269363403e-01 7.8313255310058594e-01</leafValues></_>
        <_>
          <internalNodes>
            0 -1 0 -1.9758068956434727e-03</internalNodes>
          <leafValues>
            6.7726224660873413e-01 -4.2441248893737793e-01</leafValues></_>
        <_>
          <internalNodes>
            0 -1 7 8.4423450753092766e-03</internalNodes>
          <leafValues>
            -4.4398915767669678e-01 5.8736819028854370e-01</leafValues></_>
        <_>
          <internalNodes>
            0 -1 2 1.3361260062083602e-04</internalNodes>
          <leafValues>
            3.1918212771415710e-01 -8.6963427066802979e-01</leafValues></_>
        <_>
          <internalNodes>
            0 -1 3 -6.9528319872915745e-03</internalNodes>
          <leafValues>
            6.0484683513641357e-01 -4.7905805706977844e-01</leafValues></_></weakClassifiers></_></stages>
  <features>
    <_>
      <rects>
        <_>
          0 15 18 4 -1.</_>
        <_>
          9 15 9 4 2.</_></rects>
      <tilted>0</tilted></_>
    <_>
      <rects>
        <_>
          1 56 57 8 -1.</_>
        <_>
          1 60 57 4 2.</_></rects>
      <tilted>0</tilted></_>
    <_>
      <rects>
        <_>
          1 62 12 2 -1.</_>
        <_>
          7 62 6 2 2.</_></rects>
      <tilted>0</tilted></_>
    <_>
      <rects>
        <_>
          5 48 31 15 -1.</_>
        <_>
          5 53 31 5 3.</_></rects>
      <tilted>0</tilted></_>
    <_>
      <rects>
        <_>
          12 56 13 8 -1.</_>
        <_>
          12 60 13 4 2.</_></rects>
      <tilted>0</tilted></_>
    <_>
      <rects>
        <_>
          25 22 27 36 -1.</_>
        <_>
          25 40 27 18 2.</_></rects>
      <tilted>0</tilted></_>
    <_>
      <rects>
        <_>
          43 24 21 25 -1.</_>
        <_>
          50 24 7 25 3.</_></rects>
      <tilted>0</tilted></_>
    <_>
      <rects>
        <_>
          48 22 16 32 -1.</_>
        <_>
          48 22 8 16 2.</_>
        <_>
          56 38 8 16 2.</_></rects>
      <tilted>0</tilted></_>
    <_>
      <rects>
        <_>
          50 47 14 5 -1.</_>
        <_>
          57 47 7 5 2.</_></rects>
      <tilted>0</tilted></_></features></cascade>
</opencv_storage>
