<?xml version="1.0"?>
<opencv_storage>
<cascade>
  <stageType>BOOST</stageType>
  <featureType>HAAR</featureType>
  <height>64</height>
  <width>64</width>
  <stageParams>
    <boostType>GAB</boostType>
    <minHitRate>9.9500000476837158e-01</minHitRate>
    <maxFalseAlarm>5.0000000000000000e-01</maxFalseAlarm>
    <weightTrimRate>9.4999999999999996e-01</weightTrimRate>
    <maxDepth>1</maxDepth>
    <maxWeakCount>100</maxWeakCount></stageParams>
  <featureParams>
    <maxCatCount>0</maxCatCount>
    <featSize>1</featSize>
    <mode>BASIC</mode></featureParams>
  <stageNum>2</stageNum>
  <stages>
    <!-- stage 0 -->
    <_>
      <maxWeakCount>4</maxWeakCount>
      <stageThreshold>-1.1526592969894409e+00</stageThreshold>
      <weakClassifiers>
        <_>
          <internalNodes>
            0 -1 1 3.8413163274526596e-03</internalNodes>
          <leafValues>
            -8.0501931905746460e-01 5.8598726987838745e-01</leafValues></_>
        <_>
          <internalNodes>
            0 -1 10 1.2066459283232689e-02</internalNodes>
          <leafValues>
            -4.7773271799087524e-01 7.2572273015975952e-01</leafValues></_>
        <_>
          <internalNodes>
            0 -1 5 -1.1315610259771347e-02</internalNodes>
          <leafValues>
            6.6574519872665405e-01 -3.8781163096427917e-01</leafValues></_>
        <_>
          <internalNodes>
            0 -1 6 -1.3910842826589942e-03</internalNodes>
          <leafValues>
            5.1790434122085571e-01 -5.0931739807128906e-01</leafValues></_></weakClassifiers></_>
    <!-- stage 1 -->
    <_>
      <maxWeakCount>7</maxWeakCount>
      <stageThreshold>-1.3275223970413208e+00</stageThreshold>
      <weakClassifiers>
        <_>
          <internalNodes>
            0 -1 7 1.4847805723547935e-02</internalNodes>
          <leafValues>
            -7.3002755641937256e-01 5.5555558204650879e-01</leafValues></_>
        <_>
          <internalNodes>
            0 -1 0 -6.3381874933838844e-03</internalNodes>
          <leafValues>
            7.0277285575866699e-01 -3.9204341173171997e-01</leafValues></_>
        <_>
          <internalNodes>
            0 -1 9 6.5233502537012100e-03</internalNodes>
          <leafValues>
            -3.8666266202926636e-01 6.0747981071472168e-01</leafValues></_>
        <_>
          <internalNodes>
            0 -1 4 -5.5455047637224197e-02</internalNodes>
          <leafValues>
            7.0302224159240723e-01 -2.9404956102371216e-01</leafValues></_>
        <_>
          <internalNodes>
            0 -1 3 -8.4368381649255753e-03</internalNodes>
          <leafValues>
            7.4251979589462280e-01 -2.7324861288070679e-01</leafValues></_>
        <_>
          <internalNodes>
            0 -1 8 8.5764440882485360e-05</internalNodes>
          <leafValues>
            -4.6436768770217896e-01 4.9098500609397888e-01</leafValues></_>
        <_>
          <internalNodes>
            0 -1 2 1.1476131476229057e-04</internalNodes>
          <leafValues>
            2.9297593235969543e-01 -7.5824409723281860e-01</leafValues></_></weakClassifiers></_></stages>
  <features>
    <_>
      <rects>
        <_>
          0 26 12 32 -1.</_>
        <_>
          4 26 4 32 3.</_></rects>
      <tilted>0</tilted></_>
    <_>
      <rects>
        <_>
          0 58 56 6 -1.</_>
        <_>
          0 61 56 3 2.</_></rects>
      <tilted>0</tilted></_>
    <_>
      <rects>
        <_>
          1 62 12 2 -1.</_>
        <_>
          7 62 6 2 2.</_></rects>
      <tilted>0</tilted></_>
    <_>
      <rects>
        <_>
          3 6 12 29 -1.</_>
        <_>
          9 6 6 29 2.</_></rects>
      <tilted>0</tilted></_>
    <_>
      <rects>
        <_>
          4 2 45 27 -1.</_>
        <_>
          4 11 45 9 3.</_></rects>
      <tilted>0</tilted></_>
    <_>
      <rects>
        <_>
          5 47 57 12 -1.</_>
        <_>
          5 51 57 4 3.</_></rects>
      <tilted>0</tilted></_>
    <_>
      <rects>
        <_>
          7 60 57 4 -1.</_>
        <_>
          26 60 19 4 3.</_></rects>
      <tilted>0</tilted></_>
    <_>
      <rects>
        <_>
          12 56 51 8 -1.</_>
        <_>
          12 60 51 4 2.</_></rects>
      <tilted>0</tilted></_>
    <_>
      <rects>
        <_>
          25 60 12 4 -1.</_>
        <_>
          25 62 12 2 2.</_></rects>
      <tilted>0</tilted></_>
    <_>
      <rects>
        <_>
          50 46 14 18 -1.</_>
        <_>
          57 46 7 18 2.</_></rects>
      <tilted>0</tilted></_>
    <_>
      <rects>
        <_>
          54 22 10 42 -1.</_>
        <_>
          59 22 5 42 2.</_></rects>
      <tilted>0</tilted></_></features></cascade>
</opencv_storage>
